# Features order: trip_duration_days, miles_traveled, total_receipts_amount, miles_per_day, spend_per_day, miles_bucket, receipts_bucket, miles_per_day_bucket, receipt_cents, spend_per_day_bucket
def score(input):
    if input[2] < 841.11:
        if input[1] < 569.0:
            if input[2] < 23.47:
                if input[1] < 80.0:
                    var0 = 6.6457148
                else:
                    var0 = 16.642847
            else:
                if input[3] < 95.8:
                    var0 = 41.13262
                else:
                    var0 = 22.726604
        else:
            if input[3] < 206.25:
                if input[1] < 891.0:
                    var0 = 54.16743
                else:
                    var0 = 67.3203
            else:
                if input[2] < 519.94:
                    var0 = 33.849483
                else:
                    var0 = 47.55177
    else:
        if input[4] < 356.10333:
            if input[1] < 527.0:
                if input[2] < 1024.53:
                    var0 = 60.659023
                else:
                    var0 = 77.963326
            else:
                if input[8] < 99.0:
                    var0 = 90.419235
                else:
                    var0 = 29.14125
        else:
            if input[2] < 1072.44:
                var0 = 49.268734
            else:
                var0 = 71.4656
    if input[2] < 841.11:
        if input[0] < 5.0:
            if input[1] < 566.0:
                if input[1] < 204.0:
                    var1 = 13.255485
                else:
                    var1 = 23.427378
            else:
                if input[2] < 519.94:
                    var1 = 32.052807
                else:
                    var1 = 44.931892
        else:
            if input[1] < 482.0:
                if input[0] < 9.0:
                    var1 = 34.133087
                else:
                    var1 = 44.707863
            else:
                if input[2] < 493.0:
                    var1 = 51.538727
                else:
                    var1 = 65.06261
    else:
        if input[0] < 6.0:
            if input[1] < 622.0:
                var1 = 60.544098
            else:
                var1 = 72.45947
        else:
            if input[1] < 697.0:
                var1 = 76.57858
            else:
                if input[8] < 99.0:
                    var1 = 89.07262
                else:
                    var1 = 15.38872
    if input[2] < 834.06:
        if input[0] < 5.0:
            if input[1] < 566.0:
                if input[2] < 587.38:
                    var2 = 16.325539
                else:
                    var2 = 30.015982
            else:
                if input[7] < 26.0:
                    var2 = 36.81407
                else:
                    var2 = 21.604963
        else:
            if input[1] < 482.0:
                if input[2] < 568.58:
                    var2 = 33.762905
                else:
                    var2 = 45.812572
            else:
                var2 = 56.000813
    else:
        if input[0] < 5.0:
            if input[2] < 1072.44:
                var2 = 44.616055
            else:
                var2 = 63.23603
        else:
            if input[1] < 527.0:
                if input[8] < 99.0:
                    var2 = 68.906586
                else:
                    var2 = 18.49831
            else:
                if input[8] < 99.0:
                    var2 = 81.51959
                else:
                    var2 = 15.004001
    if input[2] < 863.93:
        if input[1] < 625.0:
            if input[2] < 579.29:
                if input[2] < 23.47:
                    var3 = 11.81395
                else:
                    var3 = 28.685104
            else:
                if input[4] < 140.93857:
                    var3 = 46.453995
                else:
                    var3 = 30.307077
        else:
            if input[3] < 232.0:
                if input[2] < 493.0:
                    var3 = 46.703976
                else:
                    var3 = 59.300476
            else:
                if input[2] < 540.6:
                    var3 = 28.994165
                else:
                    var3 = 40.68591
    else:
        if input[4] < 526.6575:
            if input[1] < 636.0:
                if input[2] < 1024.53:
                    var3 = 51.829967
                else:
                    var3 = 67.995735
            else:
                if input[8] < 99.0:
                    var3 = 77.79143
                else:
                    var3 = 14.628901
        else:
            if input[2] < 1084.16:
                var3 = 37.534252
            else:
                var3 = 58.821533
    if input[2] < 841.11:
        if input[0] < 5.0:
            if input[1] < 566.0:
                if input[2] < 568.58:
                    var4 = 14.238962
                else:
                    var4 = 26.67932
            else:
                var4 = 30.900223
        else:
            if input[1] < 836.0:
                if input[1] < 263.0:
                    var4 = 29.696516
                else:
                    var4 = 40.62867
            else:
                var4 = 54.604717
    else:
        if input[0] < 6.0:
            if input[1] < 305.0:
                if input[2] < 1241.21:
                    var4 = 38.909767
                else:
                    var4 = 52.198524
            else:
                if input[8] < 99.0:
                    var4 = 59.466774
                else:
                    var4 = 15.591858
        else:
            if input[1] < 697.0:
                if input[4] < 68.04667:
                    var4 = 16.740103
                else:
                    var4 = 65.34505
            else:
                if input[8] < 99.0:
                    var4 = 76.64612
                else:
                    var4 = 23.30757
    if input[2] < 863.93:
        if input[0] < 5.0:
            if input[1] < 566.0:
                if input[2] < 568.58:
                    var5 = 12.898221
                else:
                    var5 = 26.599665
            else:
                if input[2] < 519.94:
                    var5 = 26.692106
                else:
                    var5 = 37.362408
        else:
            if input[1] < 372.0:
                if input[0] < 9.0:
                    var5 = 25.950827
                else:
                    var5 = 36.237263
            else:
                if input[2] < 486.02:
                    var5 = 40.805824
                else:
                    var5 = 51.327583
    else:
        if input[0] < 5.0:
            if input[2] < 1072.44:
                var5 = 38.22645
            else:
                if input[1] < 72.0:
                    var5 = 30.605167
                else:
                    var5 = 54.21298
        else:
            if input[1] < 527.0:
                var5 = 59.94862
            else:
                if input[8] < 99.0:
                    var5 = 70.09804
                else:
                    var5 = 13.680489
    if input[2] < 863.93:
        if input[0] < 6.0:
            if input[1] < 566.0:
                if input[2] < 568.58:
                    var6 = 14.455253
                else:
                    var6 = 25.249464
            else:
                if input[2] < 540.6:
                    var6 = 27.655954
                else:
                    var6 = 39.33915
        else:
            if input[1] < 629.0:
                if input[2] < 519.94:
                    var6 = 30.697382
                else:
                    var6 = 40.742165
            else:
                var6 = 47.92866
    else:
        if input[0] < 6.0:
            if input[1] < 313.0:
                if input[2] < 1241.21:
                    var6 = 34.53787
                else:
                    var6 = 47.961456
            else:
                if input[8] < 99.0:
                    var6 = 54.127712
                else:
                    var6 = 14.246401
        else:
            if input[1] < 643.0:
                if input[2] < 974.73:
                    var6 = 42.34801
                else:
                    var6 = 59.814716
            else:
                if input[8] < 99.0:
                    var6 = 69.180565
                else:
                    var6 = 13.338477
    if input[2] < 863.93:
        if input[0] < 5.0:
            if input[5] < 11.0:
                if input[2] < 423.16:
                    var7 = 10.905701
                else:
                    var7 = 21.075052
            else:
                if input[2] < 540.6:
                    var7 = 24.022377
                else:
                    var7 = 35.60585
        else:
            if input[5] < 12.0:
                if input[2] < 568.58:
                    var7 = 27.202261
                else:
                    var7 = 38.615322
            else:
                if input[2] < 486.02:
                    var7 = 38.322536
                else:
                    var7 = 49.47257
    else:
        if input[0] < 6.0:
            if input[2] < 1072.44:
                var7 = 40.031647
            else:
                if input[3] < 17.5:
                    var7 = 31.488554
                else:
                    var7 = 51.296886
        else:
            if input[5] < 10.0:
                if input[4] < 68.04667:
                    var7 = 13.764185
                else:
                    var7 = 54.819183
            else:
                var7 = 64.59867
    if input[2] < 655.24:
        if input[0] < 5.0:
            if input[1] < 470.0:
                if input[0] < 3.0:
                    var8 = 5.215981
                else:
                    var8 = 15.425145
            else:
                if input[0] < 3.0:
                    var8 = 17.55083
                else:
                    var8 = 26.102613
        else:
            if input[1] < 836.0:
                if input[1] < 263.0:
                    var8 = 22.589342
                else:
                    var8 = 31.496662
            else:
                var8 = 42.040585
    else:
        if input[0] < 7.0:
            if input[2] < 1094.06:
                if input[1] < 368.0:
                    var8 = 29.601904
                else:
                    var8 = 40.37017
            else:
                if input[9] < 48.0:
                    var8 = 51.35326
                else:
                    var8 = 39.510334
        else:
            if input[1] < 500.0:
                if input[3] < 59.0:
                    var8 = 51.248318
                else:
                    var8 = 2.5109558
            else:
                var8 = 61.871998
    if input[2] < 834.06:
        if input[0] < 6.0:
            if input[1] < 569.0:
                if input[0] < 3.0:
                    var9 = 9.844016
                else:
                    var9 = 18.120327
            else:
                if input[2] < 540.6:
                    var9 = 23.491781
                else:
                    var9 = 34.227207
        else:
            if input[1] < 472.0:
                if input[0] < 10.0:
                    var9 = 23.317122
                else:
                    var9 = 31.034397
            else:
                if input[1] < 836.0:
                    var9 = 34.69082
                else:
                    var9 = 44.16519
    else:
        if input[0] < 6.0:
            if input[2] < 1084.16:
                var9 = 34.345787
            else:
                if input[7] < 43.0:
                    var9 = 46.24707
                else:
                    var9 = 13.497924
        else:
            if input[1] < 852.0:
                if input[8] < 99.0:
                    var9 = 52.548096
                else:
                    var9 = 17.414331
            else:
                var9 = 60.796223
    if input[2] < 655.24:
        if input[0] < 4.0:
            if input[1] < 470.0:
                if input[0] < 3.0:
                    var10 = 4.9373403
                else:
                    var10 = 12.285559
            else:
                if input[3] < 673.0:
                    var10 = 20.537321
                else:
                    var10 = 10.869113
        else:
            if input[1] < 629.0:
                if input[1] < 85.0:
                    var10 = 16.232471
                else:
                    var10 = 24.868853
            else:
                if input[4] < 149.13777:
                    var10 = 34.40206
                else:
                    var10 = 6.940717
    else:
        if input[0] < 7.0:
            if input[2] < 1084.16:
                if input[1] < 368.0:
                    var10 = 25.92887
                else:
                    var10 = 37.425045
            else:
                if input[4] < 1191.195:
                    var10 = 46.010796
                else:
                    var10 = 36.587826
        else:
            if input[1] < 483.0:
                if input[3] < 59.0:
                    var10 = 45.32635
                else:
                    var10 = 1.1344804
            else:
                var10 = 55.24411
    if input[2] < 863.93:
        if input[0] < 7.0:
            if input[1] < 289.0:
                if input[2] < 449.83:
                    var11 = 7.9130044
                else:
                    var11 = 18.510454
            else:
                if input[0] < 3.0:
                    var11 = 16.44412
                else:
                    var11 = 25.57342
        else:
            if input[1] < 805.0:
                if input[0] < 12.0:
                    var11 = 25.09757
                else:
                    var11 = 33.992573
            else:
                var11 = 40.771633
    else:
        if input[0] < 5.0:
            if input[2] < 1072.44:
                var11 = 26.921915
            else:
                if input[3] < 1068.0:
                    var11 = 40.08027
                else:
                    var11 = 19.173887
        else:
            if input[1] < 815.0:
                if input[0] < 11.0:
                    var11 = 42.550865
                else:
                    var11 = 51.207867
            else:
                var11 = 54.61086
    if input[2] < 735.52:
        if input[0] < 5.0:
            if input[1] < 456.0:
                if input[0] < 3.0:
                    var12 = 4.040333
                else:
                    var12 = 13.334331
            else:
                var12 = 19.483168
        else:
            if input[5] < 7.0:
                if input[4] < 140.13364:
                    var12 = 19.593948
                else:
                    var12 = 3.0070236
            else:
                if input[1] < 836.0:
                    var12 = 27.445526
                else:
                    var12 = 35.523296
    else:
        if input[0] < 5.0:
            if input[2] < 1072.44:
                if input[1] < 389.0:
                    var12 = 21.318079
                else:
                    var12 = 32.076504
            else:
                if input[1] < 72.0:
                    var12 = 19.588524
                else:
                    var12 = 37.697437
        else:
            if input[1] < 697.0:
                if input[2] < 1114.96:
                    var12 = 34.08341
                else:
                    var12 = 44.738426
            else:
                if input[8] < 99.0:
                    var12 = 51.082737
                else:
                    var12 = 6.963016
    if input[2] < 655.24:
        if input[0] < 6.0:
            if input[5] < 6.0:
                if input[0] < 3.0:
                    var13 = 3.7154367
                else:
                    var13 = 11.0046
            else:
                if input[0] < 3.0:
                    var13 = 12.039322
                else:
                    var13 = 20.915646
        else:
            if input[5] < 9.0:
                var13 = 20.808474
            else:
                if input[0] < 11.0:
                    var13 = 27.408426
                else:
                    var13 = 37.030148
    else:
        if input[0] < 7.0:
            if input[2] < 1072.44:
                if input[5] < 8.0:
                    var13 = 21.711163
                else:
                    var13 = 31.890497
            else:
                if input[5] < 4.0:
                    var13 = 29.582403
                else:
                    var13 = 39.301117
        else:
            if input[5] < 13.0:
                if input[2] < 1059.79:
                    var13 = 32.077293
                else:
                    var13 = 42.331142
            else:
                if input[8] < 99.0:
                    var13 = 48.973183
                else:
                    var13 = 13.1976385
    if input[2] < 651.64:
        if input[0] < 6.0:
            if input[1] < 566.0:
                if input[0] < 3.0:
                    var14 = 4.704732
                else:
                    var14 = 12.830234
            else:
                if input[7] < 26.0:
                    var14 = 19.261175
                else:
                    var14 = 10.681315
        else:
            if input[1] < 477.0:
                if input[1] < 85.0:
                    var14 = 12.734279
                else:
                    var14 = 20.736979
            else:
                if input[0] < 12.0:
                    var14 = 26.46984
                else:
                    var14 = 35.12354
    else:
        if input[0] < 6.0:
            if input[1] < 522.0:
                if input[2] < 1084.16:
                    var14 = 20.47546
                else:
                    var14 = 31.003513
            else:
                var14 = 36.155056
        else:
            if input[1] < 483.0:
                if input[2] < 967.0:
                    var14 = 27.825586
                else:
                    var14 = 39.02307
            else:
                if input[8] < 99.0:
                    var14 = 45.155117
                else:
                    var14 = 12.757717
    var15 = var0 + var1 + var2 + var3 + var4 + var5 + var6 + var7 + var8 + var9 + var10 + var11 + var12 + var13 + var14
    if input[2] < 841.11:
        if input[0] < 6.0:
            if input[1] < 293.0:
                if input[2] < 456.24:
                    var16 = 6.6215014
                else:
                    var16 = 14.023851
            else:
                if input[0] < 2.0:
                    var16 = 10.297951
                else:
                    var16 = 19.64463
        else:
            if input[1] < 432.0:
                if input[1] < 76.0:
                    var16 = 13.417584
                else:
                    var16 = 21.215202
            else:
                if input[2] < 470.23:
                    var16 = 25.017736
                else:
                    var16 = 33.769318
    else:
        if input[0] < 5.0:
            if input[1] < 72.0:
                if input[1] < 47.0:
                    var16 = 21.558939
                else:
                    var16 = -8.954669
            else:
                if input[2] < 1070.22:
                    var16 = 22.48256
                else:
                    var16 = 32.705593
        else:
            if input[1] < 697.0:
                if input[0] < 11.0:
                    var16 = 32.8818
                else:
                    var16 = 42.224358
            else:
                if input[8] < 99.0:
                    var16 = 43.875164
                else:
                    var16 = 6.1400566
    if input[2] < 664.9:
        if input[0] < 7.0:
            if input[1] < 289.0:
                if input[0] < 2.0:
                    var17 = 1.3629135
                else:
                    var17 = 9.390895
            else:
                if input[0] < 3.0:
                    var17 = 11.094242
                else:
                    var17 = 18.45502
        else:
            if input[1] < 432.0:
                if input[1] < 85.0:
                    var17 = 12.405246
                else:
                    var17 = 19.394041
            else:
                if input[0] < 11.0:
                    var17 = 23.820204
                else:
                    var17 = 32.197968
    else:
        if input[1] < 483.0:
            if input[0] < 3.0:
                var17 = 19.587015
            else:
                if input[1] < 482.0:
                    var17 = 31.61121
                else:
                    var17 = -3.9320114
        else:
            if input[0] < 4.0:
                var17 = 30.123642
            else:
                if input[8] < 99.0:
                    var17 = 40.47255
                else:
                    var17 = 12.269724
    if input[6] < 15.0:
        if input[1] < 289.0:
            if input[0] < 3.0:
                if input[1] < 147.0:
                    var18 = 0.21725166
                else:
                    var18 = 5.554828
            else:
                if input[0] < 9.0:
                    var18 = 10.473907
                else:
                    var18 = 17.217958
        else:
            if input[0] < 5.0:
                if input[0] < 2.0:
                    var18 = 8.880321
                else:
                    var18 = 16.258883
            else:
                if input[0] < 11.0:
                    var18 = 21.686861
                else:
                    var18 = 28.582188
    else:
        if input[0] < 4.0:
            if input[1] < 622.0:
                if input[6] < 19.0:
                    var18 = 14.489601
                else:
                    var18 = 23.051756
            else:
                var18 = 29.510798
        else:
            if input[1] < 852.0:
                if input[0] < 11.0:
                    var18 = 30.583775
                else:
                    var18 = 37.059517
            else:
                var18 = 41.136093
    if input[2] < 793.55:
        if input[0] < 5.0:
            if input[1] < 159.0:
                if input[0] < 3.0:
                    var19 = 0.62910527
                else:
                    var19 = 6.502979
            else:
                if input[0] < 2.0:
                    var19 = 8.082488
                else:
                    var19 = 14.089759
        else:
            if input[1] < 629.0:
                if input[0] < 9.0:
                    var19 = 13.631925
                else:
                    var19 = 18.785255
            else:
                if input[2] < 493.0:
                    var19 = 21.610806
                else:
                    var19 = 29.29076
    else:
        if input[1] < 643.0:
            if input[0] < 10.0:
                if input[2] < 1422.11:
                    var19 = 22.19661
                else:
                    var19 = 28.123686
            else:
                if input[2] < 967.0:
                    var19 = 23.828451
                else:
                    var19 = 35.432404
        else:
            if input[3] < 206.25:
                if input[8] < 99.0:
                    var19 = 38.22559
                else:
                    var19 = 10.971901
            else:
                if input[7] < 43.0:
                    var19 = 29.984943
                else:
                    var19 = 11.026774
    if input[2] < 974.73:
        if input[0] < 4.0:
            if input[1] < 566.0:
                if input[2] < 519.94:
                    var20 = 4.6181393
                else:
                    var20 = 11.692628
            else:
                if input[2] < 540.6:
                    var20 = 13.048598
                else:
                    var20 = 19.781965
        else:
            if input[1] < 616.0:
                if input[2] < 579.29:
                    var20 = 14.165504
                else:
                    var20 = 21.026194
            else:
                if input[8] < 99.0:
                    var20 = 24.627184
                else:
                    var20 = 7.530998
    else:
        if input[0] < 5.0:
            if input[1] < 72.0:
                if input[1] < 47.0:
                    var20 = 16.036884
                else:
                    var20 = -10.98877
            else:
                if input[0] < 2.0:
                    var20 = 21.474771
                else:
                    var20 = 27.792343
        else:
            if input[1] < 891.0:
                if input[0] < 11.0:
                    var20 = 29.19325
                else:
                    var20 = 35.45712
            else:
                if input[4] < 150.28334:
                    var20 = 44.34168
                else:
                    var20 = 35.16969
    if input[2] < 655.24:
        if input[0] < 9.0:
            if input[1] < 191.0:
                if input[0] < 2.0:
                    var21 = -0.36609378
                else:
                    var21 = 6.4547496
            else:
                if input[0] < 3.0:
                    var21 = 8.137661
                else:
                    var21 = 15.522354
        else:
            if input[1] < 379.0:
                var21 = 15.811289
            else:
                if input[0] < 12.0:
                    var21 = 19.920126
                else:
                    var21 = 28.006977
    else:
        if input[0] < 11.0:
            if input[1] < 756.0:
                if input[2] < 1114.96:
                    var21 = 18.63745
                else:
                    var21 = 25.372604
            else:
                if input[3] < 815.0:
                    var21 = 31.448957
                else:
                    var21 = 19.035307
        else:
            if input[8] < 99.0:
                if input[1] < 229.0:
                    var21 = 28.542997
                else:
                    var21 = 35.653538
            else:
                var21 = 8.571957
    if input[2] < 841.11:
        if input[0] < 7.0:
            if input[1] < 293.0:
                if input[2] < 456.24:
                    var22 = 3.7643936
                else:
                    var22 = 10.03868
            else:
                if input[0] < 2.0:
                    var22 = 6.936641
                else:
                    var22 = 15.213599
        else:
            if input[1] < 616.0:
                if input[0] < 12.0:
                    var22 = 13.33357
                else:
                    var22 = 20.392035
            else:
                if input[2] < 423.16:
                    var22 = 20.779814
                else:
                    var22 = 27.893574
    else:
        if input[0] < 5.0:
            if input[1] < 313.0:
                if input[4] < 267.58:
                    var22 = 3.024431
                else:
                    var22 = 18.942612
            else:
                if input[0] < 2.0:
                    var22 = 19.1219
                else:
                    var22 = 26.260654
        else:
            if input[1] < 810.0:
                if input[0] < 12.0:
                    var22 = 25.497164
                else:
                    var22 = 32.41855
            else:
                if input[4] < 155.39333:
                    var22 = 37.3728
                else:
                    var22 = 30.904737
    if input[2] < 651.64:
        if input[0] < 9.0:
            if input[1] < 265.0:
                if input[0] < 2.0:
                    var23 = 0.746433
                else:
                    var23 = 6.871981
            else:
                if input[0] < 2.0:
                    var23 = 5.897172
                else:
                    var23 = 13.289803
        else:
            if input[1] < 872.0:
                if input[0] < 12.0:
                    var23 = 13.713979
                else:
                    var23 = 19.394836
            else:
                var23 = 24.330172
    else:
        if input[1] < 522.0:
            if input[0] < 3.0:
                if input[2] < 1404.28:
                    var23 = 11.43714
                else:
                    var23 = 16.52056
            else:
                if input[2] < 1241.21:
                    var23 = 19.190004
                else:
                    var23 = 25.665695
        else:
            if input[0] < 4.0:
                if input[2] < 1164.37:
                    var23 = 17.722322
                else:
                    var23 = 24.538069
            else:
                if input[1] < 989.0:
                    var23 = 28.39307
                else:
                    var23 = 33.54051
    if input[2] < 974.73:
        if input[0] < 5.0:
            if input[1] < 191.0:
                if input[0] < 2.0:
                    var24 = -0.578853
                else:
                    var24 = 5.3725457
            else:
                if input[2] < 568.58:
                    var24 = 8.804723
                else:
                    var24 = 13.951569
        else:
            if input[1] < 836.0:
                if input[0] < 11.0:
                    var24 = 12.7542925
                else:
                    var24 = 19.521275
            else:
                if input[2] < 475.95:
                    var24 = 17.595823
                else:
                    var24 = 26.206848
    else:
        if input[0] < 5.0:
            if input[1] < 72.0:
                if input[1] < 47.0:
                    var24 = 13.317116
                else:
                    var24 = -12.463574
            else:
                if input[4] < 267.58:
                    var24 = 8.08156
                else:
                    var24 = 21.946913
        else:
            if input[1] < 931.0:
                if input[0] < 13.0:
                    var24 = 25.203352
                else:
                    var24 = 31.83602
            else:
                if input[4] < 169.41692:
                    var24 = 36.500763
                else:
                    var24 = 27.817307
    if input[2] < 664.9:
        if input[0] < 6.0:
            if input[0] < 2.0:
                if input[1] < 534.0:
                    var25 = 0.5830197
                else:
                    var25 = 7.0818477
            else:
                if input[1] < 159.0:
                    var25 = 5.0844684
                else:
                    var25 = 10.476981
        else:
            if input[1] < 836.0:
                if input[1] < 89.0:
                    var25 = 7.469383
                else:
                    var25 = 14.565534
            else:
                var25 = 20.890808
    else:
        if input[0] < 5.0:
            if input[1] < 622.0:
                if input[0] < 2.0:
                    var25 = 11.448597
                else:
                    var25 = 17.200323
            else:
                if input[7] < 43.0:
                    var25 = 22.151754
                else:
                    var25 = 11.868369
        else:
            if input[1] < 822.0:
                if input[2] < 1241.21:
                    var25 = 19.120588
                else:
                    var25 = 25.275772
            else:
                if input[4] < 174.75:
                    var25 = 31.245014
                else:
                    var25 = 26.148672
    if input[2] < 974.73:
        if input[0] < 7.0:
            if input[2] < 568.58:
                if input[0] < 2.0:
                    var26 = 2.478866
                else:
                    var26 = 8.6851015
            else:
                if input[8] < 94.0:
                    var26 = 14.093757
                else:
                    var26 = -0.1692444
        else:
            if input[1] < 836.0:
                if input[0] < 12.0:
                    var26 = 12.137147
                else:
                    var26 = 17.988789
            else:
                if input[2] < 423.16:
                    var26 = 17.926645
                else:
                    var26 = 24.476744
    else:
        if input[4] < 174.75:
            if input[1] < 976.0:
                if input[0] < 10.0:
                    var26 = 19.148096
                else:
                    var26 = 26.993742
            else:
                var26 = 33.258186
        else:
            if input[1] < 566.0:
                if input[2] < 1422.11:
                    var26 = 12.950755
                else:
                    var26 = 19.789206
            else:
                if input[8] < 99.0:
                    var26 = 23.738232
                else:
                    var26 = 0.51563114
    if input[2] < 910.41:
        if input[0] < 6.0:
            if input[6] < 8.0:
                if input[1] < 472.0:
                    var27 = 3.2084386
                else:
                    var27 = 7.4515567
            else:
                if input[1] < 622.0:
                    var27 = 8.43775
                else:
                    var27 = 13.532916
        else:
            if input[1] < 836.0:
                if input[0] < 12.0:
                    var27 = 11.49182
                else:
                    var27 = 17.714785
            else:
                if input[9] < 5.0:
                    var27 = 20.488165
                else:
                    var27 = 5.4376616
    else:
        if input[0] < 11.0:
            if input[1] < 753.0:
                if input[2] < 1422.11:
                    var27 = 15.267097
                else:
                    var27 = 19.661755
            else:
                if input[0] < 2.0:
                    var27 = 15.497925
                else:
                    var27 = 24.08671
        else:
            if input[8] < 99.0:
                if input[0] < 13.0:
                    var27 = 24.17362
                else:
                    var27 = 29.062698
            else:
                var27 = 0.12647858
    if input[2] < 545.84:
        if input[0] < 9.0:
            if input[5] < 4.0:
                if input[0] < 2.0:
                    var28 = -0.71646434
                else:
                    var28 = 3.518596
            else:
                if input[0] < 3.0:
                    var28 = 4.753518
                else:
                    var28 = 10.122779
        else:
            if input[5] < 10.0:
                if input[3] < 0.875:
                    var28 = 2.2579668
                else:
                    var28 = 11.282607
            else:
                if input[0] < 12.0:
                    var28 = 14.41113
                else:
                    var28 = 20.365458
    else:
        if input[0] < 7.0:
            if input[6] < 28.0:
                if input[3] < 45.090908:
                    var28 = 8.263499
                else:
                    var28 = 14.486452
            else:
                if input[9] < 67.0:
                    var28 = 20.217676
                else:
                    var28 = 12.92968
        else:
            if input[0] < 13.0:
                if input[5] < 14.0:
                    var28 = 18.41263
                else:
                    var28 = 23.479368
            else:
                if input[3] < 6.090909:
                    var28 = 17.54284
                else:
                    var28 = 28.49055
    if input[2] < 664.9:
        if input[0] < 11.0:
            if input[5] < 6.0:
                if input[0] < 2.0:
                    var29 = 0.5325214
                else:
                    var29 = 5.404618
            else:
                if input[0] < 3.0:
                    var29 = 5.1756063
                else:
                    var29 = 11.045292
        else:
            if input[3] < 25.0:
                if input[3] < 0.875:
                    var29 = 2.2015169
                else:
                    var29 = 10.460353
            else:
                if input[8] < 99.0:
                    var29 = 18.709705
                else:
                    var29 = 3.8974671
    else:
        if input[0] < 6.0:
            if input[5] < 11.0:
                if input[8] < 54.0:
                    var29 = 10.294315
                else:
                    var29 = 15.714991
            else:
                if input[0] < 2.0:
                    var29 = 13.700801
                else:
                    var29 = 19.38442
        else:
            if input[5] < 19.0:
                if input[0] < 11.0:
                    var29 = 17.835903
                else:
                    var29 = 21.954407
            else:
                if input[2] < 1768.53:
                    var29 = 28.163742
                else:
                    var29 = 21.40194
    if input[2] < 974.73:
        if input[0] < 4.0:
            if input[1] < 566.0:
                if input[2] < 568.58:
                    var30 = 1.7728862
                else:
                    var30 = 6.6351943
            else:
                if input[2] < 475.95:
                    var30 = 6.8456864
                else:
                    var30 = 11.155833
        else:
            if input[2] < 486.02:
                if input[1] < 263.0:
                    var30 = 5.2172794
                else:
                    var30 = 11.184087
            else:
                if input[1] < 643.0:
                    var30 = 12.046155
                else:
                    var30 = 17.651361
    else:
        if input[0] < 5.0:
            if input[1] < 72.0:
                if input[0] < 4.0:
                    var30 = 9.535625
                else:
                    var30 = -14.331065
            else:
                if input[4] < 267.58:
                    var30 = -0.4157425
                else:
                    var30 = 16.034254
        else:
            if input[1] < 313.0:
                if input[2] < 1241.21:
                    var30 = 12.277003
                else:
                    var30 = 18.383154
            else:
                if input[4] < 153.15:
                    var30 = 25.833603
                else:
                    var30 = 20.270063
    if input[6] < 19.0:
        if input[0] < 8.0:
            if input[6] < 8.0:
                if input[0] < 2.0:
                    var31 = 0.05824228
                else:
                    var31 = 5.733008
            else:
                if input[8] < 95.0:
                    var31 = 10.230267
                else:
                    var31 = -0.6388883
        else:
            if input[1] < 872.0:
                if input[0] < 12.0:
                    var31 = 9.84999
                else:
                    var31 = 14.100899
            else:
                if input[6] < 9.0:
                    var31 = 14.545741
                else:
                    var31 = 21.154789
    else:
        if input[4] < 174.75:
            if input[1] < 904.0:
                if input[6] < 24.0:
                    var31 = 14.641083
                else:
                    var31 = 21.829315
            else:
                var31 = 26.272589
        else:
            if input[1] < 566.0:
                if input[4] < 176.572:
                    var31 = -1.5293
                else:
                    var31 = 14.822898
            else:
                if input[8] < 99.0:
                    var31 = 18.544218
                else:
                    var31 = -1.639061
    if input[2] < 974.73:
        if input[2] < 507.59:
            if input[5] < 5.0:
                if input[0] < 2.0:
                    var32 = -0.9124282
                else:
                    var32 = 4.0503087
            else:
                if input[0] < 11.0:
                    var32 = 7.271661
                else:
                    var32 = 13.969111
        else:
            if input[4] < 131.048:
                if input[8] < 99.0:
                    var32 = 15.376938
                else:
                    var32 = 1.0057678
            else:
                if input[8] < 99.0:
                    var32 = 9.584685
                else:
                    var32 = -2.0538461
    else:
        if input[0] < 5.0:
            if input[3] < 17.5:
                if input[2] < 2248.68:
                    var32 = 9.237168
                else:
                    var32 = -14.343361
            else:
                if input[0] < 2.0:
                    var32 = 11.010709
                else:
                    var32 = 15.139139
        else:
            if input[5] < 20.0:
                if input[0] < 13.0:
                    var32 = 16.749731
                else:
                    var32 = 21.866083
            else:
                if input[4] < 150.28334:
                    var32 = 26.980637
                else:
                    var32 = 20.03346
    if input[2] < 651.64:
        if input[0] < 3.0:
            if input[5] < 10.0:
                if input[3] < 439.02335:
                    var33 = 0.5595154
                else:
                    var33 = -4.576739
            else:
                if input[8] < 98.0:
                    var33 = 5.5443587
                else:
                    var33 = 0.2180008
        else:
            if input[0] < 12.0:
                if input[5] < 5.0:
                    var33 = 4.28497
                else:
                    var33 = 8.984533
            else:
                if input[3] < 4.9166665:
                    var33 = 4.3911242
                else:
                    var33 = 14.745877
    else:
        if input[5] < 10.0:
            if input[0] < 3.0:
                if input[2] < 1378.07:
                    var33 = 5.292301
                else:
                    var33 = 8.675713
            else:
                if input[2] < 1241.21:
                    var33 = 11.364686
                else:
                    var33 = 15.582791
        else:
            if input[0] < 13.0:
                if input[8] < 99.0:
                    var33 = 16.633192
                else:
                    var33 = -1.5255219
            else:
                var33 = 22.35116
    if input[2] < 974.73:
        if input[0] < 4.0:
            if input[1] < 566.0:
                if input[8] < 47.0:
                    var34 = 3.8707006
                else:
                    var34 = 0.6598984
            else:
                if input[2] < 608.92:
                    var34 = 6.4006915
                else:
                    var34 = 9.0788145
        else:
            if input[1] < 654.0:
                if input[0] < 12.0:
                    var34 = 7.113599
                else:
                    var34 = 12.048885
            else:
                if input[8] < 99.0:
                    var34 = 13.081716
                else:
                    var34 = 1.4394158
    else:
        if input[4] < 174.75:
            if input[1] < 976.0:
                if input[2] < 1191.4:
                    var34 = 13.536682
                else:
                    var34 = 18.856873
            else:
                if input[2] < 999.45:
                    var34 = 6.520566
                else:
                    var34 = 24.3039
        else:
            if input[1] < 198.0:
                if input[1] < 191.0:
                    var34 = 11.001971
                else:
                    var34 = -2.3094652
            else:
                if input[0] < 4.0:
                    var34 = 11.973052
                else:
                    var34 = 16.141167
    if input[2] < 517.54:
        if input[0] < 9.0:
            if input[1] < 191.0:
                if input[0] < 2.0:
                    var35 = -1.2940954
                else:
                    var35 = 2.274553
            else:
                if input[0] < 3.0:
                    var35 = 3.3178296
                else:
                    var35 = 6.818275
        else:
            if input[0] < 12.0:
                if input[3] < 42.5:
                    var35 = 5.2329493
                else:
                    var35 = 9.04544
            else:
                if input[1] < 41.0:
                    var35 = 3.7374084
                else:
                    var35 = 12.091056
    else:
        if input[0] < 6.0:
            if input[1] < 622.0:
                if input[2] < 1241.21:
                    var35 = 6.59518
                else:
                    var35 = 10.869899
            else:
                if input[7] < 12.0:
                    var35 = 15.110997
                else:
                    var35 = 11.199174
        else:
            if input[1] < 989.0:
                if input[2] < 1179.9:
                    var35 = 11.921734
                else:
                    var35 = 15.76547
            else:
                if input[2] < 1768.53:
                    var35 = 21.28849
                else:
                    var35 = 15.754491
    if input[2] < 716.7:
        if input[0] < 6.0:
            if input[1] < 472.0:
                if input[0] < 3.0:
                    var36 = -0.3866118
                else:
                    var36 = 4.1459546
            else:
                if input[8] < 98.0:
                    var36 = 6.674785
                else:
                    var36 = -0.37258607
        else:
            if input[1] < 379.0:
                if input[2] < 89.99:
                    var36 = 1.5436462
                else:
                    var36 = 6.5379844
            else:
                if input[0] < 11.0:
                    var36 = 9.062733
                else:
                    var36 = 13.82017
    else:
        if input[0] < 10.0:
            if input[1] < 622.0:
                if input[2] < 1422.11:
                    var36 = 7.8351398
                else:
                    var36 = 11.4345875
            else:
                if input[8] < 99.0:
                    var36 = 14.197118
                else:
                    var36 = -2.2822886
        else:
            if input[8] < 99.0:
                if input[0] < 13.0:
                    var36 = 14.67455
                else:
                    var36 = 18.926218
            else:
                if input[0] < 12.0:
                    var36 = 3.2987366
                else:
                    var36 = -2.7000108
    if input[2] < 519.94:
        if input[1] < 265.0:
            if input[0] < 9.0:
                if input[0] < 2.0:
                    var37 = -0.6720362
                else:
                    var37 = 2.069597
            else:
                if input[0] < 14.0:
                    var37 = 4.123658
                else:
                    var37 = 9.856168
        else:
            if input[0] < 11.0:
                if input[0] < 2.0:
                    var37 = 2.6272228
                else:
                    var37 = 6.4880614
            else:
                if input[8] < 16.0:
                    var37 = 3.9801698
                else:
                    var37 = 11.437198
    else:
        if input[1] < 483.0:
            if input[2] < 1422.11:
                if input[1] < 482.0:
                    var37 = 8.4377985
                else:
                    var37 = -12.940453
            else:
                if input[4] < 562.6275:
                    var37 = 14.244342
                else:
                    var37 = 7.6414843
        else:
            if input[0] < 4.0:
                if input[2] < 1164.37:
                    var37 = 7.1803527
                else:
                    var37 = 11.797922
            else:
                if input[8] < 99.0:
                    var37 = 15.298804
                else:
                    var37 = -0.046525575
    if input[2] < 910.41:
        if input[0] < 8.0:
            if input[5] < 5.0:
                if input[4] < 142.11667:
                    var38 = 1.4363375
                else:
                    var38 = 4.3525305
            else:
                if input[6] < 10.0:
                    var38 = 4.870093
                else:
                    var38 = 7.911751
        else:
            if input[5] < 19.0:
                if input[0] < 14.0:
                    var38 = 7.5420685
                else:
                    var38 = 13.393517
            else:
                var38 = 13.723198
    else:
        if input[4] < 174.75:
            if input[5] < 20.0:
                if input[2] < 1310.01:
                    var38 = 11.372476
                else:
                    var38 = 16.40165
            else:
                if input[2] < 1656.04:
                    var38 = 23.059084
                else:
                    var38 = 10.912852
        else:
            if input[5] < 6.0:
                if input[2] < 1246.48:
                    var38 = 3.178629
                else:
                    var38 = 9.626629
            else:
                if input[4] < 176.572:
                    var38 = -0.8885979
                else:
                    var38 = 12.358414
    if input[2] < 974.73:
        if input[0] < 4.0:
            if input[1] < 508.0:
                if input[2] < 587.38:
                    var39 = 0.40791264
                else:
                    var39 = 3.9618447
            else:
                if input[2] < 456.24:
                    var39 = 4.05788
                else:
                    var39 = 6.6227517
        else:
            if input[1] < 836.0:
                if input[0] < 13.0:
                    var39 = 6.185876
                else:
                    var39 = 11.440286
            else:
                if input[3] < 188.4:
                    var39 = 12.44077
                else:
                    var39 = 6.284648
    else:
        if input[0] < 4.0:
            if input[0] < 2.0:
                if input[1] < 483.0:
                    var39 = 3.6200242
                else:
                    var39 = 8.220353
            else:
                var39 = 10.025398
        else:
            if input[1] < 313.0:
                if input[3] < 65.77778:
                    var39 = 10.62281
                else:
                    var39 = -12.546395
            else:
                if input[4] < 150.28334:
                    var39 = 16.585884
                else:
                    var39 = 13.080589
    if input[2] < 555.49:
        if input[0] < 11.0:
            if input[1] < 147.0:
                if input[0] < 3.0:
                    var40 = -1.0206928
                else:
                    var40 = 1.9673313
            else:
                if input[4] < 111.9975:
                    var40 = 5.4117265
                else:
                    var40 = 3.0702524
        else:
            if input[4] < 40.83286:
                if input[1] < 452.0:
                    var40 = 7.5505443
                else:
                    var40 = 11.802337
            else:
                var40 = 4.437248
    else:
        if input[0] < 13.0:
            if input[1] < 643.0:
                if input[2] < 1422.11:
                    var40 = 6.769391
                else:
                    var40 = 10.114729
            else:
                if input[0] < 2.0:
                    var40 = 6.738065
                else:
                    var40 = 12.8174925
        else:
            if input[1] < 52.0:
                var40 = 6.88474
            else:
                var40 = 16.596874
    if input[2] < 507.59:
        if input[1] < 569.0:
            if input[0] < 3.0:
                if input[1] < 470.0:
                    var41 = -0.4950733
                else:
                    var41 = 2.6365588
            else:
                if input[1] < 85.0:
                    var41 = 0.80090934
                else:
                    var41 = 4.274733
        else:
            if input[0] < 7.0:
                if input[8] < 98.0:
                    var41 = 4.963975
                else:
                    var41 = -1.3249593
            else:
                if input[0] < 11.0:
                    var41 = 7.2275057
                else:
                    var41 = 10.812995
    else:
        if input[1] < 643.0:
            if input[0] < 12.0:
                if input[2] < 1422.11:
                    var41 = 5.852758
                else:
                    var41 = 9.234656
            else:
                if input[1] < 98.0:
                    var41 = 8.858306
                else:
                    var41 = 13.84568
        else:
            if input[8] < 99.0:
                if input[0] < 4.0:
                    var41 = 9.121364
                else:
                    var41 = 12.674219
            else:
                if input[0] < 9.0:
                    var41 = -3.2908552
                else:
                    var41 = 2.6188486
    if input[2] < 664.9:
        if input[1] < 472.0:
            if input[3] < 103.2:
                if input[1] < 112.0:
                    var42 = 0.71485555
                else:
                    var42 = 4.9456816
            else:
                if input[3] < 439.02335:
                    var42 = 0.46270943
                else:
                    var42 = -4.3065767
        else:
            if input[3] < 136.14285:
                if input[1] < 793.0:
                    var42 = 6.8863235
                else:
                    var42 = 10.433372
            else:
                if input[1] < 852.0:
                    var42 = 2.722646
                else:
                    var42 = 6.2630653
    else:
        if input[4] < 703.63336:
            if input[1] < 934.0:
                if input[2] < 1422.11:
                    var42 = 8.234604
                else:
                    var42 = 11.142526
            else:
                if input[4] < 174.75:
                    var42 = 15.30531
                else:
                    var42 = 11.174121
        else:
            if input[2] < 1815.6:
                if input[9] < 72.0:
                    var42 = 5.4901576
                else:
                    var42 = -17.377928
            else:
                if input[1] < 255.0:
                    var42 = 3.70796
                else:
                    var42 = 8.760127
    if input[6] < 19.0:
        if input[1] < 625.0:
            if input[0] < 4.0:
                if input[6] < 9.0:
                    var43 = 0.2849381
                else:
                    var43 = 2.788
            else:
                if input[6] < 6.0:
                    var43 = 2.514796
                else:
                    var43 = 5.5886035
        else:
            if input[0] < 7.0:
                if input[6] < 9.0:
                    var43 = 3.2226944
                else:
                    var43 = 6.4963837
            else:
                if input[4] < 16.933332:
                    var43 = 6.03618
                else:
                    var43 = 9.734153
    else:
        if input[0] < 5.0:
            if input[3] < 17.5:
                if input[1] < 32.0:
                    var43 = 6.351108
                else:
                    var43 = -16.666578
            else:
                if input[9] < 67.0:
                    var43 = 8.447579
                else:
                    var43 = 3.3235238
        else:
            if input[1] < 104.0:
                if input[1] < 9.0:
                    var43 = 1.2287018
                else:
                    var43 = 7.172245
            else:
                if input[4] < 150.28334:
                    var43 = 13.766734
                else:
                    var43 = 10.478916
    if input[6] < 11.0:
        if input[0] < 9.0:
            if input[1] < 147.0:
                if input[6] < 6.0:
                    var44 = -0.581641
                else:
                    var44 = 2.037674
            else:
                if input[0] < 3.0:
                    var44 = 1.9888328
                else:
                    var44 = 4.325038
        else:
            if input[1] < 1025.03:
                if input[0] < 14.0:
                    var44 = 4.580894
                else:
                    var44 = 10.33612
            else:
                if input[8] < 44.0:
                    var44 = 13.241304
                else:
                    var44 = 6.8616214
    else:
        if input[1] < 586.0:
            if input[0] < 11.0:
                if input[8] < 51.0:
                    var44 = 3.7220757
                else:
                    var44 = 7.444481
            else:
                if input[8] < 97.0:
                    var44 = 10.577647
                else:
                    var44 = -4.520421
        else:
            if input[3] < 356.5:
                if input[8] < 99.0:
                    var44 = 10.54168
                else:
                    var44 = -2.049012
            else:
                if input[6] < 15.0:
                    var44 = 0.37430725
                else:
                    var44 = 7.0494766
    if input[2] < 1013.03:
        if input[0] < 12.0:
            if input[1] < 678.0:
                if input[1] < 213.0:
                    var45 = 0.8677225
                else:
                    var45 = 3.6052854
            else:
                if input[2] < 540.6:
                    var45 = 5.082861
                else:
                    var45 = 7.9492683
        else:
            if input[2] < 486.02:
                if input[1] < 66.13:
                    var45 = 0.4210579
                else:
                    var45 = 7.5042114
            else:
                var45 = 10.899753
    else:
        if input[4] < 174.75:
            if input[1] < 1006.0:
                if input[2] < 1179.9:
                    var45 = 7.169192
                else:
                    var45 = 11.517055
            else:
                if input[2] < 1768.53:
                    var45 = 17.421715
                else:
                    var45 = 8.136319
        else:
            if input[4] < 176.572:
                var45 = -13.798186
            else:
                if input[0] < 2.0:
                    var45 = 4.0125647
                else:
                    var45 = 8.530383
    if input[2] < 974.73:
        if input[0] < 12.0:
            if input[5] < 5.0:
                if input[2] < 364.79:
                    var46 = 0.28498974
                else:
                    var46 = 3.1172462
            else:
                if input[0] < 2.0:
                    var46 = 1.3999316
                else:
                    var46 = 5.371566
        else:
            if input[8] < 97.0:
                if input[2] < 484.34:
                    var46 = 6.168698
                else:
                    var46 = 10.537982
            else:
                var46 = -4.679906
    else:
        if input[0] < 4.0:
            if input[7] < 43.0:
                if input[5] < 12.0:
                    var46 = 4.3392305
                else:
                    var46 = 7.3272433
            else:
                if input[2] < 1549.86:
                    var46 = 7.3680053
                else:
                    var46 = -17.303118
        else:
            if input[5] < 2.0:
                if input[4] < 562.6275:
                    var46 = 5.181082
                else:
                    var46 = -8.390998
            else:
                if input[0] < 13.0:
                    var46 = 9.300102
                else:
                    var46 = 12.751356
    if input[6] < 19.0:
        if input[0] < 7.0:
            if input[1] < 213.0:
                if input[1] < 210.0:
                    var47 = 0.9248498
                else:
                    var47 = -6.1950755
            else:
                if input[0] < 3.0:
                    var47 = 1.8304147
                else:
                    var47 = 4.3449483
        else:
            if input[1] < 793.0:
                if input[0] < 13.0:
                    var47 = 4.061241
                else:
                    var47 = 8.3430395
            else:
                if input[8] < 99.0:
                    var47 = 8.39018
                else:
                    var47 = 0.71303713
    else:
        if input[0] < 5.0:
            if input[3] < 17.5:
                if input[1] < 32.0:
                    var47 = 4.976898
                else:
                    var47 = -16.346449
            else:
                if input[6] < 37.0:
                    var47 = 4.789213
                else:
                    var47 = 7.8859134
        else:
            if input[1] < 586.0:
                if input[0] < 14.0:
                    var47 = 6.8968673
                else:
                    var47 = 12.432199
            else:
                if input[8] < 99.0:
                    var47 = 10.008037
                else:
                    var47 = -2.2035532
    if input[2] < 749.56:
        if input[0] < 6.0:
            if input[0] < 2.0:
                if input[1] < 534.0:
                    var48 = -1.2989753
                else:
                    var48 = 2.2313488
            else:
                if input[3] < 46.142857:
                    var48 = 0.6877545
                else:
                    var48 = 3.2735112
        else:
            if input[1] < 263.0:
                if input[2] < 373.98:
                    var48 = -0.013267635
                else:
                    var48 = 3.45036
            else:
                if input[0] < 11.0:
                    var48 = 4.980764
                else:
                    var48 = 8.284937
    else:
        if input[0] < 4.0:
            if input[9] < 71.0:
                if input[1] < 756.0:
                    var48 = 4.329526
                else:
                    var48 = 7.37199
            else:
                if input[1] < 993.0:
                    var48 = 5.016191
                else:
                    var48 = -16.99027
        else:
            if input[8] < 99.0:
                if input[1] < 104.0:
                    var48 = 4.502849
                else:
                    var48 = 8.851242
            else:
                var48 = -3.9619179
    if input[2] < 983.23:
        if input[1] < 629.0:
            if input[0] < 10.0:
                if input[2] < 373.98:
                    var49 = 0.726055
                else:
                    var49 = 2.9351327
            else:
                if input[8] < 99.0:
                    var49 = 5.0025325
                else:
                    var49 = -2.6879294
        else:
            if input[3] < 183.8:
                if input[2] < 545.84:
                    var49 = 4.790508
                else:
                    var49 = 7.562546
            else:
                if input[8] < 98.0:
                    var49 = 3.4989946
                else:
                    var49 = -1.8391113
    else:
        if input[4] < 153.15:
            if input[1] < 1014.0:
                if input[2] < 1179.9:
                    var49 = 6.1580195
                else:
                    var49 = 10.423161
            else:
                if input[2] < 999.45:
                    var49 = 1.5664704
                else:
                    var49 = 15.503903
        else:
            if input[1] < 553.0:
                if input[8] < 52.0:
                    var49 = 3.139424
                else:
                    var49 = 7.0441775
            else:
                if input[8] < 99.0:
                    var49 = 7.406791
                else:
                    var49 = -4.3732147
    if input[2] < 1013.03:
        if input[2] < 475.95:
            if input[1] < 1077.0:
                if input[1] < 265.0:
                    var50 = 0.75266564
                else:
                    var50 = 2.8371634
            else:
                if input[3] < 115.75:
                    var50 = 7.776905
                else:
                    var50 = 4.0977726
        else:
            if input[8] < 99.0:
                if input[4] < 415.78168:
                    var50 = 5.5848117
                else:
                    var50 = 1.3220485
            else:
                if input[4] < 51.16143:
                    var50 = 0.3683258
                else:
                    var50 = -5.499834
    else:
        if input[4] < 153.15:
            if input[1] < 1014.0:
                if input[2] < 1346.21:
                    var50 = 7.418808
                else:
                    var50 = 10.313772
            else:
                var50 = 15.308792
        else:
            if input[2] < 1114.96:
                if input[4] < 267.58:
                    var50 = -3.16199
                else:
                    var50 = 2.8159225
            else:
                if input[7] < 43.0:
                    var50 = 6.595121
                else:
                    var50 = -3.2107353
    if input[2] < 1013.03:
        if input[0] < 10.0:
            if input[1] < 763.0:
                if input[0] < 2.0:
                    var51 = -0.90295666
                else:
                    var51 = 2.465916
            else:
                if input[2] < 456.24:
                    var51 = 3.1761625
                else:
                    var51 = 5.4287076
        else:
            if input[1] < 965.0:
                if input[8] < 99.0:
                    var51 = 5.221059
                else:
                    var51 = -1.7359047
            else:
                if input[4] < 25.788:
                    var51 = 5.6794505
                else:
                    var51 = 10.963443
    else:
        if input[4] < 174.75:
            if input[7] < 4.0:
                if input[0] < 10.0:
                    var51 = 3.6229577
                else:
                    var51 = 8.74013
            else:
                if input[1] < 822.0:
                    var51 = 4.934135
                else:
                    var51 = 13.80275
        else:
            if input[2] < 1422.11:
                if input[8] < 50.0:
                    var51 = 0.17237346
                else:
                    var51 = 6.0058265
            else:
                if input[1] < 80.0:
                    var51 = 0.79944557
                else:
                    var51 = 6.614019
    if input[2] < 475.95:
        if input[1] < 94.0:
            if input[2] < 290.78:
                if input[4] < 2.850909:
                    var52 = 1.1547359
                else:
                    var52 = -1.8822596
            else:
                if input[0] < 9.0:
                    var52 = 0.17860794
                else:
                    var52 = 2.1994522
        else:
            if input[0] < 2.0:
                if input[2] < 171.32:
                    var52 = 0.53703195
                else:
                    var52 = -1.0237978
            else:
                if input[0] < 12.0:
                    var52 = 2.8345141
                else:
                    var52 = 5.7270627
    else:
        if input[0] < 13.0:
            if input[1] < 654.0:
                if input[2] < 1241.21:
                    var52 = 2.747751
                else:
                    var52 = 5.317132
            else:
                if input[3] < 356.5:
                    var52 = 7.0299845
                else:
                    var52 = 4.274509
        else:
            if input[8] < 98.0:
                if input[2] < 486.02:
                    var52 = 0.14793244
                else:
                    var52 = 9.818141
            else:
                var52 = -4.4243393
    if input[2] < 769.23:
        if input[0] < 5.0:
            if input[1] < 885.0:
                if input[0] < 2.0:
                    var53 = -0.43576726
                else:
                    var53 = 1.144932
            else:
                if input[7] < 14.0:
                    var53 = 4.4114385
                else:
                    var53 = 1.3259419
        else:
            if input[1] < 263.0:
                if input[3] < 41.5:
                    var53 = 1.8958822
                else:
                    var53 = -2.6737828
            else:
                if input[2] < 252.08:
                    var53 = 2.527882
                else:
                    var53 = 5.393742
    else:
        if input[1] < 313.0:
            if input[0] < 9.0:
                if input[8] < 50.0:
                    var53 = 0.9420473
                else:
                    var53 = 3.779597
            else:
                if input[2] < 1171.99:
                    var53 = 3.301757
                else:
                    var53 = 6.7004313
        else:
            if input[8] < 99.0:
                if input[0] < 4.0:
                    var53 = 4.3344603
                else:
                    var53 = 7.4009027
            else:
                var53 = -4.1632853
    if input[2] < 1013.03:
        if input[8] < 99.0:
            if input[1] < 147.0:
                if input[2] < 298.68:
                    var54 = -0.8748054
                else:
                    var54 = 1.8441445
            else:
                if input[0] < 4.0:
                    var54 = 2.2353194
                else:
                    var54 = 4.304662
        else:
            if input[2] < 631.88:
                if input[3] < 74.416664:
                    var54 = 0.31964234
                else:
                    var54 = -2.410832
            else:
                var54 = -5.5841675
    else:
        if input[0] < 4.0:
            if input[1] < 616.0:
                if input[0] < 2.0:
                    var54 = 0.23418322
                else:
                    var54 = 3.1818013
            else:
                if input[2] < 1815.6:
                    var54 = 3.6094136
                else:
                    var54 = 6.0929284
        else:
            if input[3] < 100.6:
                if input[0] < 13.0:
                    var54 = 5.2695365
                else:
                    var54 = 8.704265
            else:
                if input[4] < 169.41692:
                    var54 = 12.237515
                else:
                    var54 = 7.440718
    if input[2] < 517.54:
        if input[0] < 11.0:
            if input[1] < 147.0:
                if input[2] < 364.79:
                    var55 = -0.9824815
                else:
                    var55 = 1.5384601
            else:
                if input[1] < 885.0:
                    var55 = 1.5045849
                else:
                    var55 = 3.5635579
        else:
            if input[1] < 66.13:
                if input[1] < 41.0:
                    var55 = 0.82607806
                else:
                    var55 = -1.4406083
            else:
                if input[2] < 106.86:
                    var55 = 9.912791
                else:
                    var55 = 4.400588
    else:
        if input[0] < 3.0:
            if input[9] < 71.0:
                if input[1] < 508.0:
                    var55 = 0.66047585
                else:
                    var55 = 4.005585
            else:
                if input[1] < 993.0:
                    var55 = 1.7635721
                else:
                    var55 = -17.141226
        else:
            if input[8] < 99.0:
                if input[0] < 13.0:
                    var55 = 5.25718
                else:
                    var55 = 8.391439
            else:
                if input[2] < 631.88:
                    var55 = 0.7701538
                else:
                    var55 = -4.977403
    if input[6] < 15.0:
        if input[0] < 6.0:
            if input[1] < 472.0:
                if input[3] < 439.02335:
                    var56 = 0.5824023
                else:
                    var56 = -5.675283
            else:
                if input[8] < 91.0:
                    var56 = 2.5097463
                else:
                    var56 = -0.8538402
        else:
            if input[0] < 13.0:
                if input[1] < 210.0:
                    var56 = 0.4948686
                else:
                    var56 = 3.708636
            else:
                if input[4] < 36.452145:
                    var56 = 4.3185916
                else:
                    var56 = 9.604812
    else:
        if input[1] < 313.0:
            if input[0] < 12.0:
                if input[8] < 50.0:
                    var56 = 0.58130825
                else:
                    var56 = 3.4942677
            else:
                if input[1] < 98.0:
                    var56 = 3.948225
                else:
                    var56 = 7.3130975
        else:
            if input[8] < 99.0:
                if input[1] < 1100.0:
                    var56 = 5.3204055
                else:
                    var56 = 7.729776
            else:
                var56 = -4.181377
    if input[2] < 517.54:
        if input[1] < 200.0:
            if input[2] < 364.79:
                if input[3] < 21.142857:
                    var57 = -1.9797032
                else:
                    var57 = 0.2676456
            else:
                if input[3] < 24.09091:
                    var57 = 2.0851154
                else:
                    var57 = -0.523493
        else:
            if input[4] < 115.82:
                if input[8] < 99.0:
                    var57 = 2.8065689
                else:
                    var57 = -2.6923554
            else:
                if input[1] < 470.0:
                    var57 = -2.0444436
                else:
                    var57 = 1.486012
    else:
        if input[1] < 989.0:
            if input[8] < 99.0:
                if input[3] < 261.75:
                    var57 = 4.5708194
                else:
                    var57 = 1.7914473
            else:
                if input[2] < 631.88:
                    var57 = 0.42009684
                else:
                    var57 = -4.952034
        else:
            if input[3] < 206.25:
                if input[2] < 1734.56:
                    var57 = 9.637797
                else:
                    var57 = 5.753042
            else:
                if input[7] < 43.0:
                    var57 = 4.6340714
                else:
                    var57 = 0.33052725
    if input[2] < 568.58:
        if input[0] < 10.0:
            if input[1] < 625.0:
                if input[3] < 278.25:
                    var58 = 0.6980356
                else:
                    var58 = -2.3104331
            else:
                if input[2] < 314.81:
                    var58 = 1.0262605
                else:
                    var58 = 3.021389
        else:
            if input[3] < 89.0:
                if input[1] < 730.0:
                    var58 = 3.9320428
                else:
                    var58 = 0.72000426
            else:
                if input[3] < 115.75:
                    var58 = 7.4580903
                else:
                    var58 = 0.49439088
    else:
        if input[0] < 11.0:
            if input[1] < 756.0:
                if input[2] < 1448.55:
                    var58 = 1.7707036
                else:
                    var58 = 4.0819535
            else:
                if input[7] < 4.0:
                    var58 = 2.1049895
                else:
                    var58 = 5.569121
        else:
            if input[1] < 1096.0:
                if input[0] < 13.0:
                    var58 = 4.9367266
                else:
                    var58 = 7.055996
            else:
                if input[2] < 865.92:
                    var58 = -0.0028259277
                else:
                    var58 = 10.331752
    if input[2] < 1129.52:
        if input[1] < 836.0:
            if input[8] < 99.0:
                if input[0] < 14.0:
                    var59 = 1.7827307
                else:
                    var59 = 6.454023
            else:
                if input[2] < 545.84:
                    var59 = -0.7899575
                else:
                    var59 = -5.1214976
        else:
            if input[7] < 7.0:
                if input[2] < 672.91:
                    var59 = 4.6829233
                else:
                    var59 = 7.838894
            else:
                if input[2] < 1084.16:
                    var59 = 3.0574653
                else:
                    var59 = -1.1665528
    else:
        if input[4] < 153.15:
            if input[1] < 1014.0:
                if input[2] < 1820.8:
                    var59 = 5.8982024
                else:
                    var59 = 9.909204
            else:
                if input[2] < 1768.53:
                    var59 = 11.951476
                else:
                    var59 = 0.53576356
        else:
            if input[2] < 1422.11:
                if input[1] < 616.0:
                    var59 = -0.23937921
                else:
                    var59 = 4.249084
            else:
                if input[8] < 99.0:
                    var59 = 4.5270805
                else:
                    var59 = -4.497371
    if input[6] < 8.0:
        if input[0] < 6.0:
            if input[1] < 976.0:
                if input[4] < 89.18643:
                    var60 = 0.037127048
                else:
                    var60 = -1.1584172
            else:
                if input[1] < 1029.0:
                    var60 = 3.0125062
                else:
                    var60 = 0.6761589
        else:
            if input[1] < 85.0:
                if input[1] < 52.0:
                    var60 = 0.033582687
                else:
                    var60 = -2.8277853
            else:
                if input[0] < 13.0:
                    var60 = 2.2567937
                else:
                    var60 = 5.944002
    else:
        if input[1] < 756.0:
            if input[0] < 12.0:
                if input[6] < 22.0:
                    var60 = 1.4411488
                else:
                    var60 = 3.063012
            else:
                if input[8] < 98.0:
                    var60 = 5.5610504
                else:
                    var60 = -3.7656357
        else:
            if input[4] < 149.6:
                if input[1] < 1014.0:
                    var60 = 4.5315747
                else:
                    var60 = 8.462606
            else:
                if input[0] < 8.0:
                    var60 = 5.2364326
                else:
                    var60 = 2.8257487
    if input[0] < 10.0:
        if input[1] < 753.0:
            if input[1] < 72.0:
                if input[1] < 69.0:
                    var61 = -0.12906963
                else:
                    var61 = -11.33522
            else:
                if input[2] < 1880.69:
                    var61 = 1.2346308
                else:
                    var61 = 3.8706887
        else:
            if input[7] < 4.0:
                if input[0] < 9.0:
                    var61 = -5.398172
                else:
                    var61 = 0.4646454
            else:
                if input[2] < 999.45:
                    var61 = 2.6630101
                else:
                    var61 = 5.0248895
    else:
        if input[1] < 1025.03:
            if input[0] < 13.0:
                if input[2] < 1147.89:
                    var61 = 2.31574
                else:
                    var61 = 4.5738244
            else:
                if input[8] < 98.0:
                    var61 = 6.160215
                else:
                    var61 = -3.6714952
        else:
            if input[4] < 25.788:
                if input[0] < 14.0:
                    var61 = 2.735846
                else:
                    var61 = 0.6565104
            else:
                if input[2] < 2072.39:
                    var61 = 9.492871
                else:
                    var61 = 4.0405927
    if input[2] < 1129.52:
        if input[1] < 885.0:
            if input[0] < 3.0:
                if input[8] < 46.0:
                    var62 = 0.36504406
                else:
                    var62 = -1.4174236
            else:
                if input[8] < 99.0:
                    var62 = 2.0141509
                else:
                    var62 = -2.4662483
        else:
            if input[3] < 188.4:
                if input[2] < 664.9:
                    var62 = 4.0918765
                else:
                    var62 = 6.941457
            else:
                if input[8] < 28.0:
                    var62 = 3.2439175
                else:
                    var62 = 0.98808634
    else:
        if input[4] < 153.15:
            if input[4] < 143.48625:
                if input[1] < 1014.0:
                    var62 = 4.827741
                else:
                    var62 = 9.264365
            else:
                if input[1] < 1158.0:
                    var62 = 9.375617
                else:
                    var62 = 0.350708
        else:
            if input[1] < 1100.0:
                if input[7] < 43.0:
                    var62 = 3.2683513
                else:
                    var62 = -17.362907
            else:
                if input[8] < 87.0:
                    var62 = 6.301329
                else:
                    var62 = 2.6034436
    if input[2] < 999.45:
        if input[1] < 265.0:
            if input[2] < 407.43:
                if input[4] < 8.236:
                    var63 = 1.5817083
                else:
                    var63 = -0.91714716
            else:
                if input[8] < 99.0:
                    var63 = 1.9179529
                else:
                    var63 = -3.6113362
        else:
            if input[3] < 188.4:
                if input[1] < 1056.0:
                    var63 = 2.640166
                else:
                    var63 = 5.0171485
            else:
                if input[1] < 452.0:
                    var63 = -1.4822102
                else:
                    var63 = 1.4911126
    else:
        if input[1] < 210.0:
            if input[1] < 195.73:
                if input[4] < 492.1575:
                    var63 = 3.0708005
                else:
                    var63 = -1.1158929
            else:
                if input[4] < 245.9425:
                    var63 = -9.134601
                else:
                    var63 = 2.4585755
        else:
            if input[4] < 153.15:
                if input[3] < 95.4:
                    var63 = 5.4184732
                else:
                    var63 = 9.754515
            else:
                if input[4] < 1191.195:
                    var63 = 4.169486
                else:
                    var63 = 1.301679
    if input[0] < 11.0:
        if input[1] < 756.0:
            if input[8] < 48.0:
                if input[2] < 314.81:
                    var64 = -0.527766
                else:
                    var64 = 2.7032166
            else:
                if input[8] < 50.0:
                    var64 = -14.122054
                else:
                    var64 = 1.7680476
        else:
            if input[2] < 540.6:
                if input[7] < 14.0:
                    var64 = 1.6131499
                else:
                    var64 = 0.062086817
            else:
                if input[4] < 150.28334:
                    var64 = 6.129543
                else:
                    var64 = 3.5798929
    else:
        if input[0] < 13.0:
            if input[3] < 95.4:
                if input[2] < 2296.07:
                    var64 = 3.5455346
                else:
                    var64 = 0.9747483
            else:
                if input[2] < 271.93:
                    var64 = 1.1712312
                else:
                    var64 = 8.7153845
        else:
            if input[1] < 83.0:
                if input[0] < 14.0:
                    var64 = 0.12266083
                else:
                    var64 = 2.6700094
            else:
                if input[2] < 2224.29:
                    var64 = 6.5615244
                else:
                    var64 = 3.662661
    if input[6] < 14.0:
        if input[1] < 112.0:
            if input[6] < 6.0:
                if input[4] < 7.056667:
                    var65 = -0.2524053
                else:
                    var65 = -2.1033719
            else:
                if input[8] < 72.0:
                    var65 = -0.3538828
                else:
                    var65 = 1.3681
        else:
            if input[0] < 12.0:
                if input[4] < 234.04666:
                    var65 = 1.5445188
                else:
                    var65 = -0.762554
            else:
                if input[1] < 301.0:
                    var65 = 1.171214
                else:
                    var65 = 4.7757487
    else:
        if input[1] < 104.0:
            if input[4] < 562.6275:
                if input[6] < 22.0:
                    var65 = 0.03196447
                else:
                    var65 = 2.2937489
            else:
                if input[4] < 582.37:
                    var65 = -16.57134
                else:
                    var65 = 1.2221859
        else:
            if input[0] < 4.0:
                if input[7] < 44.0:
                    var65 = 1.7980789
                else:
                    var65 = 6.2027407
            else:
                if input[8] < 99.0:
                    var65 = 4.099506
                else:
                    var65 = -2.6157625
    if input[1] < 872.0:
        if input[2] < 1249.41:
            if input[4] < 241.62714:
                if input[2] < 268.91:
                    var66 = 0.14744174
                else:
                    var66 = 2.019323
            else:
                if input[4] < 245.9425:
                    var66 = -18.135288
                else:
                    var66 = -0.11030181
        else:
            if input[0] < 12.0:
                if input[0] < 8.0:
                    var66 = 3.2425199
                else:
                    var66 = 1.2318308
            else:
                if input[1] < 725.0:
                    var66 = 5.5120807
                else:
                    var66 = 1.9366598
    else:
        if input[3] < 188.4:
            if input[2] < 1807.71:
                if input[2] < 865.92:
                    var66 = 3.5318773
                else:
                    var66 = 6.8547387
            else:
                if input[1] < 1096.0:
                    var66 = 1.4410659
                else:
                    var66 = 4.484044
        else:
            if input[2] < 1815.6:
                if input[2] < 1742.62:
                    var66 = 2.1803272
                else:
                    var66 = -17.095823
            else:
                if input[2] < 2424.47:
                    var66 = 4.72962
                else:
                    var66 = 0.61750793
    if input[2] < 1171.99:
        if input[1] < 836.0:
            if input[8] < 99.0:
                if input[2] < 311.43:
                    var67 = -0.21274638
                else:
                    var67 = 1.4572941
            else:
                if input[2] < 631.88:
                    var67 = -1.5039192
                else:
                    var67 = -5.0091853
        else:
            if input[3] < 188.4:
                if input[2] < 1013.03:
                    var67 = 3.3941498
                else:
                    var67 = 8.01886
            else:
                if input[3] < 199.66667:
                    var67 = -1.3927109
                else:
                    var67 = 1.7238749
    else:
        if input[9] < 67.0:
            if input[4] < 153.15:
                if input[8] < 45.0:
                    var67 = 5.909412
                else:
                    var67 = 4.0061755
            else:
                if input[2] < 1411.49:
                    var67 = 1.3774623
                else:
                    var67 = 3.4080951
        else:
            if input[1] < 1004.0:
                if input[1] < 483.0:
                    var67 = -1.2374023
                else:
                    var67 = 3.0954092
            else:
                var67 = -16.668428
    if input[0] < 13.0:
        if input[1] < 213.0:
            if input[1] < 195.73:
                if input[1] < 94.0:
                    var68 = -0.3660576
                else:
                    var68 = 1.8279499
            else:
                if input[1] < 198.0:
                    var68 = -11.838552
                else:
                    var68 = 0.19554977
        else:
            if input[0] < 2.0:
                if input[1] < 1086.0:
                    var68 = -0.10508149
                else:
                    var68 = 5.0327945
            else:
                if input[2] < 1143.58:
                    var68 = 1.8497279
                else:
                    var68 = 3.0119853
    else:
        if input[8] < 99.0:
            if input[2] < 486.02:
                if input[1] < 301.0:
                    var68 = -1.0098804
                else:
                    var68 = 3.0998769
            else:
                if input[2] < 2224.29:
                    var68 = 5.694681
                else:
                    var68 = 2.689085
        else:
            var68 = -3.6079545
    if input[0] < 13.0:
        if input[1] < 1100.0:
            if input[7] < 43.0:
                if input[2] < 1084.16:
                    var69 = 0.9111461
                else:
                    var69 = 2.3404906
            else:
                if input[1] < 1086.0:
                    var69 = -16.24909
                else:
                    var69 = 0.6482987
        else:
            if input[3] < 115.75:
                if input[0] < 12.0:
                    var69 = 7.6080565
                else:
                    var69 = 2.1419902
            else:
                if input[8] < 25.0:
                    var69 = 6.3374186
                else:
                    var69 = 2.9233522
    else:
        if input[1] < 69.0:
            if input[2] < 124.65:
                var69 = -1.640274
            else:
                if input[1] < 14.0:
                    var69 = -0.23724365
                else:
                    var69 = 1.2202033
        else:
            if input[8] < 30.0:
                if input[2] < 431.95:
                    var69 = 0.082545474
                else:
                    var69 = 6.6677337
            else:
                if input[8] < 70.0:
                    var69 = 2.4217565
                else:
                    var69 = 5.528688
    if input[0] < 10.0:
        if input[1] < 753.0:
            if input[8] < 50.0:
                if input[8] < 49.0:
                    var70 = 1.3994318
                else:
                    var70 = -13.938247
            else:
                if input[4] < 190.612:
                    var70 = 0.45317227
                else:
                    var70 = 2.4784973
        else:
            if input[7] < 4.0:
                if input[2] < 47.46:
                    var70 = 3.43127
                else:
                    var70 = -2.1963756
            else:
                if input[7] < 14.0:
                    var70 = 3.21116
                else:
                    var70 = 1.0997511
    else:
        if input[1] < 1025.03:
            if input[0] < 14.0:
                if input[2] < 214.08:
                    var70 = -1.9513397
                else:
                    var70 = 2.4394083
            else:
                if input[1] < 770.0:
                    var70 = 5.428831
                else:
                    var70 = 2.004767
        else:
            if input[8] < 44.0:
                if input[2] < 1990.0:
                    var70 = 8.9751005
                else:
                    var70 = 1.3025391
            else:
                if input[2] < 347.82:
                    var70 = 0.38497752
                else:
                    var70 = 5.2828984
    var71 = var15 + var16 + var17 + var18 + var19 + var20 + var21 + var22 + var23 + var24 + var25 + var26 + var27 + var28 + var29 + var30 + var31 + var32 + var33 + var34 + var35 + var36 + var37 + var38 + var39 + var40 + var41 + var42 + var43 + var44 + var45 + var46 + var47 + var48 + var49 + var50 + var51 + var52 + var53 + var54 + var55 + var56 + var57 + var58 + var59 + var60 + var61 + var62 + var63 + var64 + var65 + var66 + var67 + var68 + var69 + var70
    if input[1] < 1086.0:
        if input[7] < 43.0:
            if input[2] < 1241.21:
                if input[0] < 13.0:
                    var72 = 0.87161964
                else:
                    var72 = 3.9019105
            else:
                if input[8] < 48.0:
                    var72 = 3.2501245
                else:
                    var72 = 1.743939
        else:
            var72 = -15.870354
    else:
        if input[3] < 143.0:
            if input[3] < 78.75:
                if input[1] < 1096.0:
                    var72 = 0.4982941
                else:
                    var72 = -0.6621796
            else:
                if input[1] < 1185.0:
                    var72 = 6.5574656
                else:
                    var72 = 2.6605053
        else:
            if input[3] < 148.125:
                if input[2] < 106.86:
                    var72 = 0.1083313
                else:
                    var72 = -2.8854473
            else:
                if input[1] < 1175.0:
                    var72 = 2.3888597
                else:
                    var72 = 5.4908314
    if input[0] < 10.0:
        if input[1] < 756.0:
            if input[2] < 1448.55:
                if input[2] < 1411.49:
                    var73 = 0.49841142
                else:
                    var73 = -9.927518
            else:
                if input[0] < 3.0:
                    var73 = -0.09885728
                else:
                    var73 = 2.5618038
        else:
            if input[7] < 4.0:
                if input[3] < 95.4:
                    var73 = 1.2125194
                else:
                    var73 = -4.844122
            else:
                if input[2] < 999.45:
                    var73 = 1.4030981
                else:
                    var73 = 2.889142
    else:
        if input[1] < 1020.0:
            if input[0] < 14.0:
                if input[2] < 202.49:
                    var73 = -1.0778376
                else:
                    var73 = 2.320719
            else:
                if input[8] < 98.0:
                    var73 = 4.4190288
                else:
                    var73 = -3.889238
        else:
            if input[8] < 44.0:
                if input[1] < 1025.03:
                    var73 = -0.70719606
                else:
                    var73 = 7.513523
            else:
                if input[8] < 70.0:
                    var73 = 0.67309797
                else:
                    var73 = 5.6264954
    if input[5] < 12.0:
        if input[2] < 1246.48:
            if input[2] < 1227.21:
                if input[8] < 99.0:
                    var74 = 0.48455715
                else:
                    var74 = -3.079658
            else:
                if input[1] < 198.0:
                    var74 = -17.164686
                else:
                    var74 = 1.8347565
        else:
            if input[4] < 153.15:
                if input[2] < 1712.85:
                    var74 = 3.8246064
                else:
                    var74 = 8.035775
            else:
                if input[1] < 477.0:
                    var74 = 1.9274262
                else:
                    var74 = -1.4418386
    else:
        if input[1] < 1100.0:
            if input[7] < 43.0:
                if input[2] < 709.07:
                    var74 = 0.9030062
                else:
                    var74 = 2.4478686
            else:
                if input[1] < 1086.0:
                    var74 = -15.545824
                else:
                    var74 = 0.5097992
        else:
            if input[8] < 44.0:
                if input[0] < 9.0:
                    var74 = 2.1273782
                else:
                    var74 = 7.278141
            else:
                if input[0] < 12.0:
                    var74 = 3.6644552
                else:
                    var74 = -0.32576752
    if input[0] < 10.0:
        if input[8] < 47.0:
            if input[2] < 290.78:
                if input[0] < 5.0:
                    var75 = 0.52207077
                else:
                    var75 = -1.8488064
            else:
                if input[1] < 934.0:
                    var75 = 1.9640675
                else:
                    var75 = 4.0048823
        else:
            if input[8] < 50.0:
                if input[2] < 579.29:
                    var75 = -1.9810333
                else:
                    var75 = -17.012259
            else:
                if input[8] < 99.0:
                    var75 = 1.4697493
                else:
                    var75 = -2.533833
    else:
        if input[3] < 97.6:
            if input[0] < 13.0:
                if input[2] < 1179.9:
                    var75 = 1.0813829
                else:
                    var75 = 2.3379216
            else:
                if input[1] < 83.0:
                    var75 = 1.2680308
                else:
                    var75 = 3.9688504
        else:
            if input[1] < 1192.0:
                var75 = 6.5974116
            else:
                var75 = -0.54358214
    if input[2] < 716.7:
        if input[0] < 12.0:
            if input[4] < 140.93857:
                if input[2] < 311.43:
                    var76 = -0.15366626
                else:
                    var76 = 1.5607221
            else:
                if input[0] < 5.0:
                    var76 = -0.5128833
                else:
                    var76 = -6.09242
        else:
            if input[2] < 517.54:
                if input[8] < 94.0:
                    var76 = 1.21491
                else:
                    var76 = 7.051098
            else:
                if input[2] < 587.38:
                    var76 = 8.25222
                else:
                    var76 = 1.4976143
    else:
        if input[8] < 99.0:
            if input[5] < 2.0:
                if input[1] < 69.0:
                    var76 = 1.136851
                else:
                    var76 = -3.1229036
            else:
                if input[9] < 27.0:
                    var76 = 2.5467598
                else:
                    var76 = 0.77098775
        else:
            var76 = -5.2842255
    if input[0] < 11.0:
        if input[1] < 72.0:
            if input[1] < 66.13:
                if input[2] < 1059.79:
                    var77 = -1.5247767
                else:
                    var77 = 1.0823919
            else:
                if input[0] < 4.0:
                    var77 = 0.02501068
                else:
                    var77 = -15.676679
        else:
            if input[0] < 2.0:
                if input[1] < 534.0:
                    var77 = -1.5096049
                else:
                    var77 = 0.83935004
            else:
                if input[2] < 407.43:
                    var77 = 0.28553838
                else:
                    var77 = 1.6431378
    else:
        if input[1] < 1014.0:
            if input[0] < 14.0:
                if input[2] < 214.08:
                    var77 = -1.2892456
                else:
                    var77 = 1.9367307
            else:
